FANN_FLO_2.1
num_layers=3
learning_rate=0,700000
connection_rate=1,000000
network_type=0
learning_momentum=0,000000
training_algorithm=2
train_error_function=1
train_stop_function=0
cascade_output_change_fraction=0,010000
quickprop_decay=-0,000100
quickprop_mu=1,750000
rprop_increase_factor=1,200000
rprop_decrease_factor=0,500000
rprop_delta_min=0,000000
rprop_delta_max=50,000000
rprop_delta_zero=0,100000
cascade_output_stagnation_epochs=12
cascade_candidate_change_fraction=0,010000
cascade_candidate_stagnation_epochs=12
cascade_max_out_epochs=150
cascade_min_out_epochs=50
cascade_max_cand_epochs=150
cascade_min_cand_epochs=50
cascade_num_candidate_groups=2
bit_fail_limit=3,49999994039535522461e-01
cascade_candidate_limit=1,00000000000000000000e+03
cascade_weight_multiplier=4,00000005960464477539e-01
cascade_activation_functions_count=10
cascade_activation_functions=3 5 7 8 10 11 14 15 16 17 
cascade_activation_steepnesses_count=4
cascade_activation_steepnesses=2,50000000000000000000e-01 5,00000000000000000000e-01 7,50000000000000000000e-01 1,00000000000000000000e+00 
layer_sizes=4 18 5 
scale_included=0
neurons (num_inputs, activation_function, activation_steepness)=(0, 0, 0,00000000000000000000e+00) (0, 0, 0,00000000000000000000e+00) (0, 0, 0,00000000000000000000e+00) (0, 0, 0,00000000000000000000e+00) (4, 5, 9,99999977648258209229e-03) (4, 5, 9,99999977648258209229e-03) (4, 5, 9,99999977648258209229e-03) (4, 5, 9,99999977648258209229e-03) (4, 5, 9,99999977648258209229e-03) (4, 5, 9,99999977648258209229e-03) (4, 5, 9,99999977648258209229e-03) (4, 5, 9,99999977648258209229e-03) (4, 5, 9,99999977648258209229e-03) (4, 5, 9,99999977648258209229e-03) (4, 5, 9,99999977648258209229e-03) (4, 5, 9,99999977648258209229e-03) (4, 5, 9,99999977648258209229e-03) (4, 5, 9,99999977648258209229e-03) (4, 5, 9,99999977648258209229e-03) (4, 5, 9,99999977648258209229e-03) (4, 5, 9,99999977648258209229e-03) (0, 0, 0,00000000000000000000e+00) (18, 5, 9,99999977648258209229e-03) (18, 5, 9,99999977648258209229e-03) (18, 5, 9,99999977648258209229e-03) (18, 5, 9,99999977648258209229e-03) (0, 0, 0,00000000000000000000e+00) 
connections (connected_to_neuron, weight)=(0, -4,31270256042480468750e+01) (1, 6,93562545776367187500e+01) (2, 7,04522644042968750000e+02) (3, -1,51552246093750000000e+02) (0, 7,70351839065551757812e+00) (1, 1,29632070660591125488e-01) (2, -3,25403709411621093750e+01) (3, 5,06426849365234375000e+01) (0, 1,51278886795043945312e+01) (1, -1,26802215576171875000e+02) (2, -9,77696380615234375000e+01) (3, 4,43061561584472656250e+01) (0, 1,21408140659332275391e+00) (1, 2,42684578895568847656e+00) (2, 1,13981256484985351562e+01) (3, 4,23139810562133789062e-01) (0, -2,84437732696533203125e+01) (1, 3,50905799865722656250e+01) (2, 5,81596679687500000000e+02) (3, -1,45696319580078125000e+02) (0, 1,09086160659790039062e+01) (1, 1,05909900665283203125e+01) (2, -1,56883911132812500000e+02) (3, 1,33035263061523437500e+02) (0, 1,16332113742828369141e+00) (1, -9,42674255371093750000e+00) (2, 2,47599697113037109375e+01) (3, 4,34152275323867797852e-01) (0, 1,09716463088989257812e+01) (1, -4,71843566894531250000e+02) (2, 3,00362152099609375000e+02) (3, -2,07627506256103515625e+01) (0, 5,54181098937988281250e+00) (1, 8,29003524780273437500e+01) (2, 8,82262706756591796875e+00) (3, 1,87482535839080810547e+00) (0, -2,32072353363037109375e+01) (1, 1,89642086029052734375e+01) (2, 5,78715576171875000000e+02) (3, -1,40894607543945312500e+02) (0, -2,28080630302429199219e+00) (1, -7,68990659713745117188e+00) (2, 2,20424995422363281250e+01) (3, 2,92600035667419433594e-01) (0, 5,98388710021972656250e+01) (1, 5,20667236328125000000e+02) (2, -2,01576919555664062500e+01) (3, -9,03247375488281250000e+01) (0, 8,35340499877929687500e+00) (1, 3,02924652099609375000e+01) (2, 3,02241134643554687500e+01) (3, 2,44196510314941406250e+01) (0, 3,13805980682373046875e+01) (1, -2,33066787719726562500e+01) (2, 1,56916255950927734375e+01) (3, -4,68124122619628906250e+01) (0, 3,33286952972412109375e+00) (1, 6,88936352729797363281e-01) (2, -1,78259372711181640625e+01) (3, 8,66106796264648437500e+00) (0, 9,20313262939453125000e+00) (1, 2,76194953918457031250e+01) (2, -1,93731781005859375000e+02) (3, 1,82602523803710937500e+02) (0, -1,04844217300415039062e+01) (1, 3,77312438964843750000e+02) (2, 8,28880119323730468750e+00) (3, 2,10249304771423339844e+00) (4, 5,34574317932128906250e+01) (5, 1,21391220092773437500e+01) (6, 5,82289009094238281250e+01) (7, 6,65457391738891601562e+00) (8, 5,54012870788574218750e+01) (9, 2,92187671661376953125e+01) (10, 6,88156585693359375000e+01) (11, -8,27973861694335937500e+01) (12, -2,05220222473144531250e+01) (13, 5,50217018127441406250e+01) (14, 2,68292865753173828125e+01) (15, 2,91982898712158203125e+01) (16, 1,81611824035644531250e+00) (17, -2,68347206115722656250e+01) (18, 5,46180496215820312500e+01) (19, 4,44031867980957031250e+01) (20, -3,53824577331542968750e+01) (21, 3,74272842407226562500e+01) (4, -1,12279958724975585938e+01) (5, 2,17655212402343750000e+02) (6, -1,20822029113769531250e+02) (7, -2,03779373168945312500e+01) (8, -1,03551273345947265625e+01) (9, -1,03012321472167968750e+02) (10, -4,27513465881347656250e+01) (11, 3,96441574096679687500e+01) (12, -1,31769838333129882812e+01) (13, -1,01576166152954101562e+01) (14, -9,50661087036132812500e+01) (15, -9,40098037719726562500e+01) (16, -4,64700937271118164062e+00) (17, 1,05109682083129882812e+01) (18, 2,01295196533203125000e+02) (19, -7,89553375244140625000e+01) (20, 4,81472053527832031250e+01) (21, 1,33521194458007812500e+01) (4, -5,75584363937377929688e+00) (5, -2,48857345581054687500e+02) (6, 6,28015441894531250000e+01) (7, 2,16053256988525390625e+01) (8, -7,51781558990478515625e+00) (9, 5,61680488586425781250e+01) (10, 1,21278778076171875000e+02) (11, 1,94701137542724609375e+01) (12, 3,05586662292480468750e+01) (13, -7,81730699539184570312e+00) (14, 1,95166046142578125000e+02) (15, 4,63783187866210937500e+01) (16, 1,29660787582397460938e+01) (17, 2,66974105834960937500e+01) (18, -6,37838325500488281250e+01) (19, 6,69276580810546875000e+01) (20, 1,35377349853515625000e+01) (21, 8,08475208282470703125e+00) (4, -5,17111968994140625000e+01) (5, 1,14672174453735351562e+01) (6, -7,53239965438842773438e+00) (7, 2,48837903141975402832e-01) (8, -5,65485992431640625000e+01) (9, 3,12231588363647460938e+00) (10, -8,08553791046142578125e+00) (11, 1,34561479091644287109e+00) (12, 7,52492666244506835938e+00) (13, -4,84003524780273437500e+01) (14, 7,96626186370849609375e+00) (15, 9,70760583877563476562e-01) (16, 2,73235702514648437500e+00) (17, -3,09811568260192871094e+00) (18, -1,27158689498901367188e+01) (19, -1,99246001243591308594e+00) (20, -7,03246259689331054688e+00) (21, 1,45892639160156250000e+02) 
